7.232753559947013855e-04
-7.805000990629196167e-02
-3.462389297783374786e-02
-2.284012269228696823e-03
1.358220847323536873e-01
-1.037928136065602303e-02
4.906672984361648560e-02
-3.117203339934349060e-02
1.167034730315208435e-03
-2.039407473057508469e-02
-2.512761950492858887e-02
2.104214115825016052e-01
5.779948271811008453e-02
4.362974036484956741e-02
1.737218257039785385e-02
-5.923895933665335178e-02
1.390525493770837784e-01
-2.964204328600317240e-02
-6.990393449086695910e-04
-5.516219232231378555e-02
-1.415234990417957306e-02
-2.328409648034721613e-01
-1.165327150374650955e-02
5.207495577633380890e-02
7.357058301568031311e-02
9.027348272502422333e-02
2.613265102263540030e-02
-1.818920820951461792e-01
-6.243547983467578888e-02
-1.642162203788757324e-01
-3.056249581277370453e-02
1.623768303543329239e-01
3.657655371353030205e-02
2.203203029930591583e-01
-1.588999787345528603e-01
-4.829735634848475456e-02
-3.065667115151882172e-02
-4.523175186477601528e-02
9.329093270935118198e-02
-1.192084394278936088e-01
-7.022127241361886263e-02
5.811675265431404114e-02
1.184296328574419022e-02
3.894895873963832855e-02
1.012462712824344635e-01
-2.760614082217216492e-02
-3.758482635021209717e-04
2.783231921494007111e-01
-1.440066369250416756e-01
1.445107134059071541e-01
-1.630406351760029793e-01
-4.955249186605215073e-02
1.666778028011322021e-01
2.593115530908107758e-02
1.349970046430826187e-02
7.004399364814162254e-02
-4.662329796701669693e-02
-6.921098381280899048e-02
-2.292933780699968338e-02
-9.801899269223213196e-02
9.472251869738101959e-03
3.252881718799471855e-02
-2.373993257060647011e-02
1.682991143316030502e-01
1.456764019094407558e-01
-4.321748204529285431e-02
-1.363299787044525146e-03
3.785743564367294312e-02
1.408587470650672913e-01
2.762006595730781555e-02
-4.552278888877481222e-02
-1.508099585771560669e-02
-6.136648869141936302e-02
-3.115646168589591980e-02
1.706890575587749481e-02
9.249649266712367535e-02
1.281054653227329254e-01
-1.189752484206110239e-01
-7.782974338624626398e-02
2.602506335824728012e-02
2.927185990847647190e-02
2.500454084947705269e-01
-6.780088320374488831e-02
1.361879929900169373e-01
-8.118670247495174408e-02
-3.107474558055400848e-02
1.617952361702919006e-01
2.179651288315653801e-02
-5.007374752312898636e-02
-4.664028529077768326e-03
9.596634656190872192e-03
-1.159656856907531619e-02
-5.082873743958771229e-03
1.015381906181573868e-01
-6.704866327345371246e-02
-4.835153184831142426e-02
5.095832981169223785e-02
-8.101351046934723854e-02
2.254682406783103943e-02
3.605410747695714235e-04
-1.873496901243925095e-01
3.708658646792173386e-02
-7.132505998015403748e-02
1.362750879488885403e-01
-1.001190394163131714e-01
-1.444623675197362900e-01
-2.745723817497491837e-03
-1.742566423490643501e-02
-1.814219634979963303e-02
1.455203421064652503e-01
-1.016543339937925339e-01
-1.305077914148569107e-01
-5.839172005653381348e-02
-1.074751978740096092e-02
5.019979551434516907e-03
1.953058876097202301e-02
1.672857608646154404e-01
-6.507654709275811911e-02
-5.173415737226605415e-02
4.240474663674831390e-03
-3.235649317502975464e-02
-2.808335544541478157e-01
-8.293979242444038391e-02
-1.053891051560640335e-02
-1.101563654374331236e-01
-2.080530552193522453e-01
-1.178235081024467945e-01
6.000873027369379997e-02
-6.039155879989266396e-02
3.761240164749324322e-02
1.185311824083328247e-01
-3.729969763662666082e-02
-1.197459734976291656e-01
7.153975684195756912e-02
1.202925387769937515e-02
-1.017297434154897928e-01
3.282682606950402260e-01
-1.262118385639041662e-01
1.052154256030917168e-01
2.051750104874372482e-02
5.317646916955709457e-02
5.883216188431106275e-02
1.327836029231548309e-01
3.872031532227993011e-02
9.787697717547416687e-02
-2.866493910551071167e-02
1.816774450708180666e-02
6.448995368555188179e-02
-1.607539411634206772e-02
-5.490921938326209784e-02
1.882571517489850521e-01
2.892322931438684464e-01
5.932708363980054855e-02
3.628207510337233543e-02
-8.297662995755672455e-02
2.681516343727707863e-02
1.441371394321322441e-02
5.054424982517957687e-04
1.006474383175373077e-01
-1.058741270971950144e-01
-3.164816461503505707e-02
-7.791105285286903381e-02
8.579986635595560074e-03
1.398909473791718483e-01
6.958127627149224281e-02
5.095788696780800819e-02
2.533478150144219398e-02
5.908878985792398453e-02
-4.833182794973254204e-01
-1.618198547512292862e-01
8.225947013124823570e-02
3.109856159426271915e-02
-2.480964735150337219e-02
8.776227477937936783e-03
-2.136119222268462181e-02
-2.695895917713642120e-02
-2.976142801344394684e-03
-3.246185160242021084e-02
6.875611003488302231e-02
-6.223343126475811005e-02
6.071782088838517666e-02
-2.443461073562502861e-01
-3.492974862456321716e-02
-1.076102876104414463e-01
-1.301019819366047159e-01
9.550507133826613426e-02
3.446789493318647146e-02
1.297093846369534731e-01
-2.897581923753023148e-02
1.898732548579573631e-01
-9.259177325293421745e-02
-5.155097739771008492e-02
1.411062292754650116e-02
-4.958556592464447021e-02
2.243651077151298523e-03
-2.660312410444021225e-02
-3.288454469293355942e-02
-7.140046451240777969e-03
6.396900792606174946e-02
-7.595344632863998413e-02
1.564313303679227829e-01
-1.424852898344397545e-02
1.293638162314891815e-01
-9.306826442480087280e-02
-5.205650092102587223e-02
-7.352865301072597504e-02
-4.533208493739948608e-04
3.673702909145504236e-02
6.304342206567525864e-02
4.555865190923213959e-03
-1.535853557288646698e-02
-3.629606217145919800e-02
1.052984013222157955e-02
-2.393496746663004160e-02
-1.622562222182750702e-01
3.000682592391967773e-02
6.124382198322564363e-02
-2.438066992908716202e-02
-1.555259525775909424e-02
-3.429695536033250391e-02
1.288503780961036682e-02
1.583313825540244579e-02
2.762756613083183765e-02
-5.772978067398071289e-02
6.755211809650063515e-02
8.929775934666395187e-02
-5.700961966067552567e-02
-1.274785398854874074e-01
2.912886051490204409e-01
-1.577455187216401100e-01
-8.074444998055696487e-02
-2.190090049989521503e-01
3.928532171994447708e-02
3.583607706241309643e-02
3.289843536913394928e-02
-2.501025609672069550e-02
-1.708982780110090971e-02
1.340985097922384739e-01
3.805878112325444818e-02
-2.286234352504834533e-02
4.798286571167409420e-02
-2.003524301107972860e-02
-1.098667569458484650e-01
2.496016770601272583e-01
2.935573831200599670e-02
-5.015467654448002577e-02
-1.067142756655812263e-01
1.827707421034574509e-02
3.109878860414028168e-03
1.512069106101989746e-01
6.501929741352796555e-02
6.117240618914365768e-02
9.375372715294361115e-02
2.671983791515231133e-02
-1.074476446956396103e-01
4.061834746971726418e-02
1.774212005548179150e-01
6.272882036864757538e-02
2.087094960734248161e-02
-9.725241654086858034e-02
9.504755074158310890e-02
6.050987448543310165e-02
-5.364151671528816223e-03
4.000383708626031876e-02
-2.833757922053337097e-02
-1.234869481995701790e-01
-4.779133491683751345e-02
1.800497863441705704e-01
6.607095431536436081e-02
-4.060954507440328598e-02
-2.939862841740250587e-01
2.237993199378252029e-02
9.466203860938549042e-02
3.621462080627679825e-02
-6.931810081005096436e-02
-9.179904920165427029e-02
2.396914828568696976e-02
-2.866998501121997833e-02
5.101481592282652855e-02
-8.702160743996500969e-02
6.089018285274505615e-02
1.177103947848081589e-01
2.787745883688330650e-02
-5.553143564611673355e-03
-8.887850912287831306e-03
-1.003946387208998203e-01
-5.660263739991933107e-02
-9.396036155521869659e-02
2.314508752897381783e-02
1.056055761873722076e-01
4.792689997702836990e-02
-6.386447139084339142e-02
-2.023527026176452637e-02
1.544759981334209442e-02
-1.077163316076621413e-01
8.849728759378194809e-02
2.149698324501514435e-03
8.880158979445695877e-02
8.417667821049690247e-02
-8.923279820010066032e-02
2.034393465146422386e-02
3.290118323639035225e-02
4.402889008633792400e-02
4.371884744614362717e-02
1.291464269161224365e-01
-2.321805944666266441e-02
1.301946835592389107e-01
-6.069955043494701385e-02
-6.214475608430802822e-02
-2.762243966571986675e-02
1.068971073254942894e-02
-4.957069922238588333e-02
-3.235559910535812378e-03
-4.672724788542836905e-02
-3.953555524349212646e-01
-5.435024877078831196e-02
-6.704062595963478088e-02
-3.393089491873979568e-02
-2.956071216613054276e-02
-3.230476751923561096e-02
4.501386545598506927e-03
4.824694152921438217e-02
1.893196292221546173e-01
1.206198055297136307e-02
8.297542482614517212e-02
-1.334716565907001495e-02
-2.281554276123642921e-03
-1.509434862527996302e-01
2.573796268552541733e-02
4.971757816383615136e-02
4.432368557900190353e-03
1.527105458080768585e-03
1.032353229820728302e-01
2.608998143114149570e-02
8.360481355339288712e-03
-1.289287526160478592e-01
-1.170666217803955078e-01
-6.370243802666664124e-02
1.105774547904729843e-01
-4.425333999097347260e-02
-6.427907489705830812e-02
-5.342060339171439409e-02
1.997556909918785095e-02
4.764412855729460716e-02
-3.877395484596490860e-02
-2.881595864892005920e-03
7.585834711790084839e-02
5.032077524811029434e-02
8.558037271723151207e-02
5.384422838687896729e-04
-4.734926857054233551e-03
5.364748556166887283e-02
1.166265814390499145e-02
8.915891870856285095e-03
1.618936844170093536e-02
1.400160044431686401e-02
1.772870975546538830e-01
3.334165178239345551e-02
-5.651452578604221344e-02
1.756487786769866943e-02
-2.887694630771875381e-02
2.068494665581965819e-02
-4.702150356024503708e-03
1.061485940590500832e-02
-1.159548126015579328e-01
1.292135566473007202e-03
4.551678895950317383e-02
-9.380728006362915039e-04
4.870858974754810333e-03
1.128278370015323162e-02
1.360364609863609076e-01
-2.184307668358087540e-04
-2.165874373167753220e-02
-6.006494397297501564e-02
5.265284655615687370e-02
-3.736010706052184105e-02
-9.848452173173427582e-02
-1.102014399366453290e-01
1.623138957656919956e-01
4.064738750457763672e-04
2.590957796201109886e-02
1.914563518948853016e-02
1.171299472916871309e-01
1.112608090043067932e-01
5.437193292891606688e-02
5.113098450237885118e-03
4.315867787227034569e-02
-7.691781269386410713e-03
2.665171958506107330e-02
1.584444376640021801e-01
5.244720401242375374e-02
5.610662698745727539e-02
1.766508026048541069e-02
-1.496195637155324221e-01
5.024711287114769220e-02
1.210857250262051821e-01
-9.922426380217075348e-02
1.107623730786144733e-01
1.388772865757346153e-01
-9.004471823573112488e-03
-9.321641921997070312e-02
-4.275037813931703568e-02
-4.787517711520195007e-03
3.596696094609797001e-02
-1.219882373698055744e-02
-3.796865907497704029e-02
-1.858151261694729328e-02
3.010163549333810806e-02
-1.196080278605222702e-01
7.461358234286308289e-02
-1.046802829951047897e-01
-1.510479762218892574e-01
1.193364849314093590e-01
-6.008879188448190689e-02
9.536783560179173946e-02
-3.114651143550872803e-02
-6.831016158685088158e-02
2.309601753950119019e-03
-1.664100382477045059e-01
-3.962245839647948742e-02
-9.745172574184834957e-02
1.969359271752182394e-01
3.729461319744586945e-02
-6.272828951478004456e-02
-2.001449046656489372e-02
-4.290015809237957001e-02
-3.759760875254869461e-02
2.828536462038755417e-02
3.941549221053719521e-02
-4.569385130889713764e-02
1.468412689864635468e-01
-7.165730895940214396e-02
-4.569386912044137716e-02
-1.309875110164284706e-01
8.878129255026578903e-02
1.026316261850297451e-01
2.174942125566303730e-02
7.205463529680855572e-02
7.937943376600742340e-02
3.558247204637154937e-02
-1.983358990401029587e-02
9.058640152215957642e-02
-1.452181339263916016e-01
-1.801831531338393688e-03
-4.793366417288780212e-03
4.394261538982391357e-02
-6.248675123788416386e-02
-1.749618444591760635e-02
1.152692525647580624e-01
-2.166218124330043793e-03
6.697057606652379036e-02
2.586801280267536640e-02
-3.248768066987395287e-02
3.677853010594844818e-02
-1.948437327519059181e-02
1.463492792099714279e-01
1.284416019916534424e-02
9.554284438490867615e-02
1.858444768004119396e-02
-5.212077405303716660e-03
-2.622814662754535675e-02
3.928619297221302986e-02
-3.492452483624219894e-02
-1.202517654746770859e-01
2.513680253177881241e-01
-9.641699958592653275e-03
1.106406170874834061e-01
2.128290385007858276e-02
4.856864549219608307e-02
2.355472766794264317e-02
1.541238161735236645e-02
4.913768637925386429e-02
1.738641359843313694e-01
-7.571178954094648361e-03
-4.739098716527223587e-02
1.502919597551226616e-01
2.070025028660893440e-01
-1.606121566146612167e-02
1.307474412024021149e-01
1.207395493984222412e-01
-5.589202977716922760e-02
-3.885018918663263321e-02
-1.124423462897539139e-02
3.100500284926965833e-02
1.017692107707262039e-01
-1.499347637873142958e-01
3.571447730064392090e-02
-4.272648086771368980e-02
2.028008422348648310e-02
7.433926220983266830e-02
-2.215772634372115135e-02
1.610877556959167123e-02
1.205496551992837340e-01
6.846121139824390411e-02
-4.501951858401298523e-03
-1.627631019800901413e-02
-1.457904744893312454e-02
4.124515736475586891e-02
-3.074074257165193558e-02
4.879015684127807617e-02
-1.533838154282420874e-01
-4.744978342205286026e-02
-1.303149759769439697e-02
-2.897059440147131681e-02
4.010009486228227615e-02
8.672280516475439072e-02
-1.439267240930348635e-01
1.312982849776744843e-02
-9.926350368186831474e-02
-5.747466720640659332e-02
7.693019043654203415e-02
-9.343921672552824020e-02
-2.475685859099030495e-02
-6.407934892922639847e-02
-9.156514517962932587e-02
-1.948607654776424170e-02
8.422463946044445038e-02
-8.357566024642437696e-02
7.496925070881843567e-03
-5.197758460417389870e-02
-2.433421346358954906e-02
-9.021513070911169052e-02
-3.344394154846668243e-01
-2.324585698079317808e-02
8.057263446971774101e-02
-6.475171633064746857e-02
-4.592513944953680038e-02
-8.953874540748074651e-02
7.024318119511008263e-02
6.531185097992420197e-02
-3.144448250532150269e-02
8.795129600912332535e-03
7.608383102342486382e-02
-7.484522089362144470e-02
-4.369262233376502991e-02
4.323549568653106689e-03
1.212431397289037704e-02
-3.299762494862079620e-03
-1.121933609247207642e-01
-6.896361708641052246e-03
-1.882050889544188976e-01
-3.804404847323894501e-02
4.177053296007215977e-02
-1.228919839486479759e-01
1.144607178866863251e-02
-6.287846248596906662e-02
4.150817380286753178e-02
8.495736401528120041e-04
-9.687423892319202423e-02
-1.384222875349223614e-01
1.641612984240055084e-01
-7.000572234392166138e-02
3.270015795715153217e-02
-3.918010368943214417e-02
-9.098936920054256916e-03
2.951174374902620912e-02
3.714758981368504465e-02
1.017689490690827370e-01
-5.736930295825004578e-02
-5.046325922012329102e-02
-2.134649083018302917e-02
-2.227009506896138191e-03
7.291319780051708221e-02
-1.038382552796974778e-01
-7.600724324584007263e-02
-1.363532058894634247e-02
1.025110064074397087e-02
8.481189655140042305e-02
3.762560244649648666e-02
1.251696236431598663e-02
-8.378025144338607788e-02
-2.490457519888877869e-02
6.771486753132194281e-02
-5.071689188480377197e-02
1.106187663972377777e-01
-1.409213338047266006e-02
-3.458088473416864872e-02
-7.972171623259782791e-02
-2.456189459189772606e-02
8.295559696853160858e-02
1.943894317373633385e-01
-1.133409347385168076e-01
1.818107143044471741e-01
1.679039094597101212e-03
2.938560675829648972e-03
7.477757683955132961e-02
1.896892096847295761e-01
5.727219302207231522e-02
-1.477025179192423820e-01
8.588057244196534157e-03
-5.814304016530513763e-02
-1.148926671594381332e-01
-8.913212036713957787e-02
1.082453373819589615e-01
-6.822860427200794220e-02
-4.556576535105705261e-02
5.188778508454561234e-02
3.251935867592692375e-02
-6.080171186476945877e-02
1.020162487402558327e-01
1.177571068983525038e-01
6.478541134856641293e-02
3.188638947904109955e-02
1.075722277164459229e-01
1.060304511338472366e-02
-6.659860443323850632e-02
5.603371909819543362e-02
-7.761184591799974442e-03
-1.279343022033572197e-01
-1.844542231410741806e-01
-6.245549768209457397e-02
4.337371420115232468e-02
3.280205698683857918e-02
-1.347680725157260895e-01
7.712350366637110710e-02
7.998591789510101080e-02
-4.752557724714279175e-04
5.034446762874722481e-02
1.829506666399538517e-02
9.863960929214954376e-02
-4.938187473453581333e-02
1.873644371517002583e-01
-5.624192301183938980e-03
-2.571139857172966003e-02
-5.440589855425059795e-02
1.106296908110380173e-01
2.038317334372550249e-01
-8.463562978431582451e-02
1.834164150059223175e-01
8.620913699269294739e-02
-2.290775626897811890e-02
1.889707259833812714e-01
2.872143220156431198e-02
-1.348384954035282135e-01
-1.623480916023254395e-01
3.901938442140817642e-02
8.429892826825380325e-02
-1.056089065968990326e-03
-7.624564692378044128e-02
-3.862637979909777641e-02
8.444761531427502632e-02
-3.141924110241234303e-02
-2.092300890944898129e-02
-8.608727715909481049e-03
-2.712190160527825356e-01
-5.110130179673433304e-02
-2.260513184592127800e-02
-9.801826998591423035e-02
-7.994717825204133987e-02
4.126242361962795258e-03
4.380015656352043152e-02
-3.033843822777271271e-03
-5.864304536953568459e-02
5.348217114806175232e-02
-5.145310540683567524e-02
-3.067973259021528065e-02
2.325584201607853174e-01
5.970971612259745598e-02
3.551177494227886200e-02
1.338013652712106705e-01
-6.269428855739533901e-02
1.891502328217029572e-01
6.193106807768344879e-02
1.665922605898231268e-01
-1.871308991685509682e-01
-9.199091698974370956e-03
7.532430812716484070e-03
-1.147585315629839897e-02
1.180560281500220299e-01
5.040343850851058960e-03
-2.894474915228784084e-02
-3.575338050723075867e-04
7.684901542961597443e-02
9.146061446517705917e-02
2.202774956822395325e-02
-8.672995679080486298e-02
-1.277398141101002693e-01
1.576445484533905983e-02
3.080520872026681900e-02
-3.469903022050857544e-02
2.457089349627494812e-02
-7.448633946478366852e-02
9.922145123709924519e-03
-1.276390161365270615e-02
-5.131935328245162964e-02
-3.301477059721946716e-02
-7.310117036104202271e-02
-2.935549244284629822e-02
1.716287760064005852e-02
-3.895098363864235580e-02
-9.774123656097799540e-02
-6.983978673815727234e-03
1.065788143314421177e-01
-2.579214147408492863e-02
-1.604031492024660110e-02
-5.330799892544746399e-02
-7.966992445290088654e-03
3.210201935144141316e-02
-5.362176951020956039e-01
-4.011450288817286491e-02
2.548202965408563614e-02
-1.198528013192117214e-01
-1.201257694046944380e-01
-1.768807973712682724e-02
5.720814457163214684e-03
-1.869055610150098801e-01
2.705911174416542053e-02
5.655648699030280113e-02
-9.286567568778991699e-02
-6.572415796108543873e-02
-2.652647141367197037e-01
4.046018744120374322e-01
7.511890144087374210e-02
-2.727714204229414463e-02
-9.023058228194713593e-03
-1.136993477120995522e-02
1.391658280044794083e-02
3.791438671760261059e-02
3.947516903281211853e-03
-2.900519466493278742e-02
1.881226606201380491e-02
1.617056410759687424e-02
1.842230441980063915e-03
6.962115247733891010e-02
-8.662817731965333223e-02
4.747478477656841278e-02
1.212249742820858955e-01
-1.781870499253273010e-01
-2.212422415614128113e-01
2.164361439645290375e-02
3.399208374321460724e-02
1.665304927155375481e-02
1.124887913465499878e-02
1.011412823572754860e-02
9.942325894371606410e-02
-1.145747263217344880e-02
-5.358556751161813736e-02
6.599989766255021095e-02
-1.927713677287101746e-02
3.034281171858310699e-01
-5.006745958235114813e-02
1.534734386950731277e-03
8.984744036570191383e-02
-4.395947325974702835e-02
-1.422138563357293606e-01
3.830597735941410065e-02
-3.885494801215827465e-02
-5.070541152963414788e-02
6.401871144771575928e-02
-1.804165996145457029e-02
-1.846131151542067528e-01
-5.628523509949445724e-02
-7.991148950532078743e-02
-3.193435596767812967e-02
7.587349275127053261e-03
-6.895507883746176958e-02
-8.181094750761985779e-02
6.108188291545957327e-02
-8.227579761296510696e-02
1.066562325722770765e-01
-1.596805807203054428e-01
1.351230102591216564e-01
9.147908343584276736e-02
-3.339642984792590141e-02
4.347322788089513779e-02
3.302389406599104404e-03
1.353679662570357323e-01
-4.994586668908596039e-02
1.619427464902400970e-03
-2.712472341954708099e-04
-4.058770358096808195e-02
-1.610989761538803577e-01
9.180692862719297409e-02
1.362692164257168770e-01
9.378561656922101974e-02
-1.463913489133119583e-01
-6.944068154552951455e-02
5.929091060534119606e-02
-3.113920753821730614e-02
-1.263104081153869629e-01
-4.417574591934680939e-02
2.276302501559257507e-02
1.141512766480445862e-01
2.660544787067919970e-02
-2.103557344526052475e-03
-5.954696703702211380e-02
-6.917368993163108826e-02
2.466382748680189252e-01
-7.384211104363203049e-02
-1.699660159647464752e-02
3.240803070366382599e-02
5.463121458888053894e-03
1.167559791356325150e-01
-5.349230952560901642e-02
1.321270214393734932e-01
1.331712729297578335e-01
-1.091390848159790039e-01
-6.797600863501429558e-02
2.411323236010503024e-01
3.499158285558223724e-02
1.055288459174335003e-01
1.380099966190755367e-01
-3.350057918578386307e-02
6.884879060089588165e-02
-1.166651349049061537e-01
2.517671656096354127e-02
-1.040724841877818108e-01
-1.158813827205449343e-01
4.797487054020166397e-04
2.739212475717067719e-02
-1.348160970956087112e-01
2.264287066645920277e-02
2.565486918319948018e-02
-1.044373097829520702e-01
-2.341257706284523010e-01
1.660569650121033192e-01
8.782504871487617493e-02
-1.153983821859583259e-02
-6.492796819657087326e-02
-4.210639744997024536e-03
-1.616275086998939514e-01
5.116198054747655988e-02
3.926637640688568354e-02
2.154168779961764812e-01
-6.927461363375186920e-03
1.131821153685450554e-01
1.535789119079709053e-01
-1.110868896357715130e-01
6.796673312783241272e-02
1.751310902182012796e-01
1.168326260522007942e-01
-6.852069171145558357e-02
4.234235826879739761e-02
-5.427431315183639526e-03
-8.927661133930087090e-02
-8.469706773757934570e-02
1.007901679258793592e-01
-1.553474534302949905e-01
3.322642203420400620e-02
-3.931300994008779526e-02
2.244934118352830410e-01
-1.605855068191885948e-03
-8.126224298030138016e-02
-5.318831745535135269e-02
-9.220758103765547276e-03
-7.203565631061792374e-02
4.910908546298742294e-02
-6.738882511854171753e-03
1.808116398751735687e-02
9.234087541699409485e-03
6.587752699851989746e-02
-4.940111748874187469e-02
-1.025227317586541176e-02
3.731683362275362015e-02
-8.056415244936943054e-03
-7.539885118603706360e-03
-1.035299133509397507e-01
8.056216547265648842e-02
-1.106468355283141136e-02
-1.081605441868305206e-04
-8.683449029922485352e-02
-1.053142035380005836e-02
1.077925320714712143e-03
3.014727192930877209e-02
-9.401925187557935715e-02
-5.633268551900982857e-02
-1.510433247312903404e-01
1.325821988284587860e-01
-5.669653508812189102e-02
-1.514421310275793076e-01
4.708310589194297791e-03
5.616715364158153534e-02
-2.249403391033411026e-03
9.453884186223149300e-02
5.031066946685314178e-02
-1.365155531093478203e-01
6.068464834243059158e-02
-4.109673970378935337e-02
8.713224856182932854e-02
9.845674107782542706e-02
9.163848683238029480e-02
8.424905128777027130e-02
6.407679151743650436e-02
3.928648587316274643e-02
5.362964887171983719e-02
8.693199232220649719e-02
-6.480602174997329712e-02
1.068233186379075050e-01
-1.345679536461830139e-02
-1.167814864311367273e-01
2.230995940044522285e-02
1.593439592979848385e-01
1.817639470100402832e-01
-9.278749208897352219e-02
-4.671887680888175964e-02
-5.359848774969577789e-02
-3.702482394874095917e-02
-3.200558340176939964e-02
-1.614113328978419304e-01
2.592425886541604996e-02
2.160309329628944397e-01
-2.884381264448165894e-02
2.296825870871543884e-03
3.035540226846933365e-03
-8.134823304135352373e-02
-6.274614576250314713e-02
-2.199645815417170525e-01
-1.388968036044389009e-01
4.147416679188609123e-02
-4.460047604516148567e-02
1.449973583221435547e-01
-6.632384844124317169e-02
-1.692556105554103851e-01
-1.600835695862770081e-01
6.137707084417343140e-02
2.161957486532628536e-02
-7.091239339206367731e-02
-1.788483466953039169e-03
-9.456845931708812714e-03
-3.967984858900308609e-02
7.678384333848953247e-02
-1.863252697512507439e-02
3.181026549191301456e-01
-1.595041668042540550e-02
-8.757447823882102966e-03
9.099038084968924522e-02
-3.578755655325949192e-02
3.303043311461806297e-02
-3.575588919920846820e-02
2.877969015389680862e-02
9.619302116334438324e-03
8.001757645979523659e-02
1.405514888465404510e-01
-6.311779841780662537e-02
1.211021523922681808e-01
-7.316605560481548309e-02
-1.052953979633457493e-01
-7.785143749788403511e-02
-3.085391805507242680e-02
2.780317235738039017e-02
-1.789088360965251923e-02
-1.485775876790285110e-01
-1.008398393169045448e-01
1.812680298462510109e-02
2.749111391603946686e-01
-4.430783353745937347e-02
-3.969479724764823914e-02
1.936760731041431427e-02
-1.408035997301340103e-01
-6.704253656789660454e-02
-9.059777320362627506e-02
-1.005328409373760223e-01
-1.208623563870787621e-01
1.229965314269065857e-02
-1.332573443651199341e-01
1.364705990999937057e-02
-1.076020269829314202e-01
2.325900737196207047e-02
-5.932259373366832733e-04
-3.050653205718845129e-02
-2.591776428744196892e-02
2.441129123326390982e-02
-6.976676918566226959e-02
9.732035180786624551e-02
1.318421927280724049e-01
3.002441674470901489e-02
-2.177159292623400688e-01
-5.301603022962808609e-02
1.111925272271037102e-01
2.597821503877639771e-02
-4.620728502050042152e-02
6.682611186988651752e-03
7.096251705661416054e-03
1.264052689075469971e-01
1.036661565303802490e-01
-3.322736488189548254e-02
-1.214635709766298532e-02
-9.315157961100339890e-02
2.401096932590007782e-02
1.142909750342369080e-01
-6.391567550599575043e-02
-2.308050822466611862e-02
7.267190795391798019e-02
2.514355350285768509e-01
-8.897017687559127808e-02
-3.586314897984266281e-02
1.421334408223628998e-01
6.736000999808311462e-03
-1.670115105807781219e-01
-4.255551495589315891e-02
4.174566082656383514e-02
3.903075237758457661e-02
-4.993262013886123896e-02
-3.468084102496504784e-02
3.754512127488851547e-02
4.295472474768757820e-02
-1.116134598851203918e-02
-6.357114296406507492e-02
1.255827024579048157e-02
7.614813558757305145e-02
