-2.706050872802734375e-04
5.828619003295898438e-03
-8.783817291259765625e-03
1.336383819580078125e-02
-8.103847503662109375e-04
1.841378211975097656e-02
4.734694957733154297e-03
-4.987120628356933594e-04
-4.226475954055786133e-03
4.710823297500610352e-03
-9.988546371459960938e-04
-2.526158094406127930e-02
1.114201545715332031e-02
8.414268493652343750e-03
1.599451899528503418e-02
4.778981208801269531e-03
8.596330881118774414e-03
1.913279294967651367e-03
1.998591423034667969e-02
-2.454733848571777344e-02
-1.661396026611328125e-02
-2.680754661560058594e-02
1.911282539367675781e-02
1.178503036499023438e-03
5.094766616821289062e-03
5.487918853759765625e-03
-1.771879196166992188e-02
7.177948951721191406e-03
-1.008367538452148438e-02
-2.104628086090087891e-02
8.454561233520507812e-03
1.606869697570800781e-02
-1.158165931701660156e-02
-5.280971527099609375e-03
7.450819015502929688e-03
-4.437685012817382812e-03
-6.237030029296875000e-04
2.476370334625244141e-02
-1.537173986434936523e-02
2.774477005004882812e-03
-2.113926410675048828e-02
2.454757690429687500e-02
2.895775437355041504e-02
1.398682594299316406e-02
4.917085170745849609e-03
7.258653640747070312e-03
2.832412719726562500e-04
1.306152343750000000e-02
-1.672390103340148926e-02
6.508767604827880859e-03
-1.665192842483520508e-02
4.351139068603515625e-03
-5.946159362792968750e-03
3.052711486816406250e-03
1.718288660049438477e-02
-2.190673351287841797e-02
-1.076149940490722656e-02
1.343119144439697266e-02
-3.867232799530029297e-02
1.127898693084716797e-03
-2.193008363246917725e-02
6.663560867309570312e-03
-3.040647506713867188e-02
-3.232517838478088379e-02
4.787611961364746094e-02
1.111775636672973633e-03
-1.670897006988525391e-03
2.167204022407531738e-02
-1.209008693695068359e-02
8.525013923645019531e-03
-5.666553974151611328e-03
3.762960433959960938e-03
-3.771543502807617188e-03
-2.352577447891235352e-02
1.061737537384033203e-02
-5.480289459228515625e-03
-1.184248924255371094e-02
2.316799759864807129e-02
-1.413744688034057617e-02
-7.810845971107482910e-03
-3.409862518310546875e-03
-8.348464965820312500e-03
-1.012766361236572266e-02
5.296891927719116211e-02
-1.335734128952026367e-02
8.478209376335144043e-03
6.050109863281250000e-02
-2.162140607833862305e-02
-5.694955587387084961e-03
1.580858230590820312e-02
-6.227955222129821777e-03
-7.996976375579833984e-03
3.376412391662597656e-02
-2.715587615966796875e-03
-9.348452091217041016e-03
-1.327037811279296875e-03
1.332235336303710938e-02
6.668031215667724609e-03
5.924344062805175781e-03
1.530945301055908203e-02
-1.821414753794670105e-02
3.307461738586425781e-03
-1.944941282272338867e-02
-1.227712631225585938e-02
9.814359247684478760e-03
-4.360532760620117188e-02
8.303821086883544922e-04
-1.368832588195800781e-02
1.872915029525756836e-02
-2.996087074279785156e-03
1.021528244018554688e-02
1.340866088867187500e-02
3.101825714111328125e-03
2.713704109191894531e-02
-1.043605804443359375e-02
-1.093888282775878906e-02
7.034838199615478516e-03
-6.734907627105712891e-03
1.461631059646606445e-02
9.079694747924804688e-03
-1.915633678436279297e-03
-1.961773633956909180e-02
-7.247149944305419922e-03
-1.123607158660888672e-02
-4.735469818115234375e-03
3.229677677154541016e-02
7.207691669464111328e-03
6.671190261840820312e-03
-5.014061927795410156e-03
-2.912759780883789062e-03
-1.944506168365478516e-02
-5.981206893920898438e-03
5.142033100128173828e-03
7.209837436676025391e-03
-1.043945550918579102e-02
2.362394332885742188e-02
1.141712069511413574e-02
-1.619264483451843262e-03
-1.110416650772094727e-02
-1.580498740077018738e-02
1.807489991188049316e-02
3.357625007629394531e-02
1.741468906402587891e-02
-1.458357274532318115e-02
-1.196360588073730469e-02
-4.427716135978698730e-03
-1.482903491705656052e-02
-1.396417617797851562e-03
-4.161000251770019531e-03
-4.127097129821777344e-02
1.423776149749755859e-02
4.057586193084716797e-04
-5.002319812774658203e-03
6.379365921020507812e-03
1.125514507293701172e-03
1.867401599884033203e-02
-6.645619869232177734e-03
2.064585685729980469e-03
-7.514953613281250000e-04
7.753491401672363281e-03
1.717357337474822998e-02
-2.385246753692626953e-02
-6.483674049377441406e-03
3.391098976135253906e-02
-3.758907318115234375e-03
1.461744308471679688e-03
-8.267402648925781250e-03
9.558819234371185303e-03
-3.046393394470214844e-02
-3.304038941860198975e-02
6.017744541168212891e-03
2.410960197448730469e-02
5.187034606933593750e-03
-2.471709251403808594e-02
-2.040971815586090088e-02
1.037812232971191406e-02
6.925106048583984375e-03
1.335144042968750000e-05
8.508563041687011719e-03
3.663778305053710938e-03
-9.335041046142578125e-03
-8.779168128967285156e-04
1.644301414489746094e-02
-1.799285411834716797e-03
-1.537199318408966064e-02
-6.707310676574707031e-03
1.025676727294921875e-03
-8.403494954109191895e-03
8.888721466064453125e-03
-1.762360334396362305e-02
2.179670333862304688e-02
3.776550292968750000e-03
4.658389091491699219e-02
-9.221911430358886719e-03
-7.083296775817871094e-03
2.367734909057617188e-03
-3.341436386108398438e-03
7.053017616271972656e-04
-1.231217384338378906e-02
1.773834228515625000e-03
-1.009738445281982422e-02
1.610279083251953125e-03
1.063632965087890625e-02
2.556754648685455322e-02
2.377057075500488281e-02
-1.453639939427375793e-02
-2.424597740173339844e-03
-2.271473407745361328e-03
5.625128746032714844e-03
-1.227498054504394531e-02
2.208104729652404785e-02
6.195038557052612305e-03
1.369309425354003906e-02
-2.916812896728515625e-03
-5.561113357543945312e-05
-4.822641611099243164e-03
-4.565954208374023438e-03
8.758187294006347656e-03
1.089322566986083984e-02
4.073704686015844345e-02
-8.568316698074340820e-03
-2.565252780914306641e-02
-1.633524894714355469e-03
-1.467323303222656250e-02
-4.848957061767578125e-03
4.482460021972656250e-02
-1.385593414306640625e-02
7.313013076782226562e-03
2.021276950836181641e-02
-7.997393608093261719e-03
-9.076662361621856689e-03
-5.827188491821289062e-03
-4.088997840881347656e-02
7.529199123382568359e-03
-5.578994750976562500e-03
-1.724421977996826172e-02
4.382133483886718750e-03
-2.650642395019531250e-02
3.583431243896484375e-04
1.220169663429260254e-02
2.268737554550170898e-02
-4.703593254089355469e-02
-1.059246063232421875e-02
-1.339054107666015625e-02
1.312005519866943359e-02
-4.103899002075195312e-03
6.051492691040039062e-02
-2.202332019805908203e-03
3.455996513366699219e-03
6.929934024810791016e-04
9.583830833435058594e-04
3.843688964843750000e-02
-2.635598182678222656e-03
-7.818222045898437500e-03
9.959220886230468750e-03
-1.639461517333984375e-02
7.803559303283691406e-03
-3.027772903442382812e-02
1.207268238067626953e-02
-3.574889898300170898e-02
1.867675781250000000e-02
2.271384000778198242e-03
1.793813705444335938e-02
1.257658004760742188e-04
-1.444816589355468750e-03
5.544900894165039062e-03
2.613687515258789062e-02
-2.762079238891601562e-03
9.595036506652832031e-03
-1.867604255676269531e-02
7.131084799766540527e-03
1.050075888633728027e-02
-1.427617669105529785e-02
3.170728683471679688e-02
-1.690021157264709473e-02
-5.212247371673583984e-03
4.246115684509277344e-03
-7.601499557495117188e-03
8.093714714050292969e-04
1.401007175445556641e-02
1.033282279968261719e-02
2.873909473419189453e-02
-1.564562320709228516e-02
-1.168265938758850098e-03
-2.352658659219741821e-02
3.881692886352539062e-03
-1.113033294677734375e-02
1.623988151550292969e-02
4.782915115356445312e-02
-1.785516738891601562e-02
-7.676720619201660156e-03
6.617784500122070312e-03
-2.645969390869140625e-02
2.204537391662597656e-03
2.908468246459960938e-03
-6.844222545623779297e-03
8.583068847656250000e-03
-1.736330986022949219e-02
-1.090419292449951172e-02
2.608299255371093750e-03
-3.143104724586009979e-03
-4.306900501251220703e-02
3.917217254638671875e-03
1.941919326782226562e-03
1.165022701025009155e-02
2.991974353790283203e-03
-1.738452911376953125e-02
-2.865195274353027344e-04
-1.021695137023925781e-02
-2.232527732849121094e-02
-6.267279386520385742e-03
-2.511791884899139404e-03
-9.989261627197265625e-03
6.999373435974121094e-03
-1.147814095020294189e-02
-1.201859861612319946e-02
-6.178331375122070312e-02
1.200288534164428711e-02
4.778623580932617188e-03
1.836133003234863281e-02
-3.152906894683837891e-03
1.481652259826660156e-02
8.378624916076660156e-03
6.478548049926757812e-03
3.216528892517089844e-02
-1.569986343383789062e-03
3.716349601745605469e-03
-1.170396804809570312e-02
3.913378715515136719e-02
-9.121417999267578125e-03
-2.196997404098510742e-03
3.207921981811523438e-03
-4.634559154510498047e-03
4.707515239715576172e-03
-1.863986253738403320e-03
-1.880943775177001953e-03
9.851753711700439453e-04
-2.919346094131469727e-02
-1.563438773155212402e-02
-1.822352409362792969e-02
1.270897639915347099e-02
-1.710700988769531250e-02
-5.712270736694335938e-03
-4.271024465560913086e-02
-1.981519162654876709e-02
-3.833603858947753906e-02
3.061035275459289551e-02
-2.814221382141113281e-02
1.499581336975097656e-02
6.416440010070800781e-03
-3.886723518371582031e-02
4.137516021728515625e-03
1.429903507232666016e-02
-1.469236612319946289e-02
-5.953311920166015625e-04
3.171002864837646484e-02
-7.567673921585083008e-03
-7.246732711791992188e-03
1.160430908203125000e-02
7.768869400024414062e-03
-1.277983188629150391e-03
-1.671677827835083008e-02
-8.258104324340820312e-03
-2.223324775695800781e-02
1.470920443534851074e-02
3.579133749008178711e-02
-1.063466072082519531e-03
-7.402673363685607910e-03
3.911066055297851562e-02
-3.901958465576171875e-03
1.773619651794433594e-02
6.812453269958496094e-03
7.736399769783020020e-03
-1.632049679756164551e-04
3.632247447967529297e-03
-1.673448085784912109e-02
-2.457141876220703125e-03
1.460385322570800781e-02
1.486635208129882812e-02
4.347753524780273438e-02
2.296471595764160156e-02
2.937316894531250000e-03
7.479310035705566406e-03
-7.970213890075683594e-03
2.123367413878440857e-02
-1.609358191490173340e-02
-1.804578304290771484e-02
5.512237548828125000e-03
-1.796090602874755859e-02
3.226846456527709961e-05
-1.164698600769042969e-02
1.659637689590454102e-02
4.920721054077148438e-03
-1.590490341186523438e-03
-2.619028091430664062e-04
-8.336544036865234375e-03
-2.011227607727050781e-02
1.529484987258911133e-02
-1.219630241394042969e-03
-5.104541778564453125e-03
-1.935106515884399414e-02
8.057415485382080078e-03
-2.982425689697265625e-02
9.320139884948730469e-03
1.379549503326416016e-02
1.444447040557861328e-02
3.054976463317871094e-03
1.455312967300415039e-02
-2.244210243225097656e-02
4.224911332130432129e-03
2.755975723266601562e-02
3.814718127250671387e-02
-1.070350408554077148e-02
2.247251570224761963e-03
-3.276038169860839844e-02
-1.970672607421875000e-02
-8.716106414794921875e-03
1.967692375183105469e-02
3.748416900634765625e-03
-1.297259330749511719e-02
-8.923530578613281250e-03
7.835924625396728516e-04
-1.348114013671875000e-02
1.941633224487304688e-02
-1.104402542114257812e-02
1.359913498163223267e-02
-5.503058433532714844e-03
-1.152503490447998047e-02
1.407372951507568359e-02
8.889913558959960938e-03
-4.900217056274414062e-03
7.195675745606422424e-03
8.544683456420898438e-03
-6.220638751983642578e-03
-6.225490570068359375e-02
1.717329025268554688e-03
9.760379791259765625e-03
-3.052596002817153931e-02
2.107381820678710938e-02
-8.323520421981811523e-03
-1.929259300231933594e-02
-4.388809204101562500e-03
-9.983777999877929688e-04
1.209974288940429688e-05
-1.652750372886657715e-02
6.698250770568847656e-03
1.875287294387817383e-02
2.030134201049804688e-02
7.562279701232910156e-03
-1.353147625923156738e-02
2.872347831726074219e-04
-1.253613829612731934e-02
-1.903662085533142090e-02
1.071202754974365234e-02
1.940822601318359375e-02
2.577975392341613770e-02
-6.947755813598632812e-03
8.875131607055664062e-03
-2.533400058746337891e-02
-2.152335643768310547e-02
5.925595760345458984e-03
1.976668834686279297e-02
-1.234555244445800781e-02
1.370233297348022461e-02
1.478683948516845703e-02
-3.791415691375732422e-02
3.604841232299804688e-02
-8.045911788940429688e-03
-1.893007755279541016e-02
1.185506582260131836e-03
2.204680442810058594e-02
-5.066871643066406250e-03
-1.164750754833221436e-02
-9.553670883178710938e-03
-3.084433078765869141e-02
2.464793622493743896e-03
1.189827919006347656e-03
-1.378762722015380859e-02
1.949656009674072266e-02
5.531549453735351562e-03
3.553628921508789062e-03
-2.611732482910156250e-02
2.969980239868164062e-03
1.919764280319213867e-02
-1.743048429489135742e-03
-2.216839790344238281e-02
3.600239753723144531e-03
-1.826333999633789062e-02
-2.154171466827392578e-02
7.552891969680786133e-03
3.779530525207519531e-03
1.420593261718750000e-02
1.426666975021362305e-02
1.048946380615234375e-02
-6.997704505920410156e-03
3.861105442047119141e-02
8.539319038391113281e-03
5.720973014831542969e-03
8.655667304992675781e-03
-6.705284118652343750e-03
2.245008945465087891e-02
1.603198051452636719e-02
-2.952671051025390625e-02
2.454900741577148438e-02
1.310944557189941406e-02
-4.368156194686889648e-03
-2.156281471252441406e-02
9.330034255981445312e-03
1.600563526153564453e-02
-2.404391765594482422e-03
-3.357806801795959473e-02
-2.290463447570800781e-02
-5.067974328994750977e-03
1.919400691986083984e-02
2.045430988073348999e-02
2.727270126342773438e-02
-1.608848571777343750e-03
2.672886848449707031e-02
-1.150339841842651367e-02
-1.995086669921875000e-02
-7.240369915962219238e-03
8.115112781524658203e-03
1.407814025878906250e-02
6.455898284912109375e-03
-4.380226135253906250e-03
-1.904964447021484375e-02
1.506400108337402344e-02
-3.402805328369140625e-02
1.278668642044067383e-02
1.657235622406005859e-02
-5.698442459106445312e-03
2.886253595352172852e-02
4.411458969116210938e-02
8.858211338520050049e-03
2.244758605957031250e-02
2.567994594573974609e-02
3.859281539916992188e-03
7.688999176025390625e-03
5.526542663574218750e-03
1.453560590744018555e-02
-1.176881790161132812e-02
1.081408560276031494e-02
1.015086472034454346e-02
2.658572793006896973e-02
2.397537231445312500e-02
1.955926418304443359e-03
-4.214483499526977539e-02
-9.582519531250000000e-03
-1.458835601806640625e-02
2.511644363403320312e-02
8.868932723999023438e-03
1.206684112548828125e-02
-2.299320697784423828e-02
-2.081054449081420898e-02
-6.226867437362670898e-03
-7.890582084655761719e-03
6.032943725585937500e-03
-5.733609199523925781e-03
1.688134670257568359e-02
-1.258703321218490601e-02
-5.392432212829589844e-03
-1.241385936737060547e-02
-1.490217447280883789e-02
-6.825029850006103516e-03
-1.908779144287109375e-03
1.047730445861816406e-03
1.790083199739456177e-02
6.811559200286865234e-03
7.631778717041015625e-04
8.939120918512344360e-03
-3.401011228561401367e-03
-1.063489913940429688e-02
-2.604997158050537109e-02
1.962351799011230469e-02
2.355849742889404297e-02
1.214069128036499023e-02
1.426959037780761719e-02
-1.007187366485595703e-02
8.071184158325195312e-03
-3.732135891914367676e-02
-1.051712036132812500e-02
1.297149062156677246e-02
1.562237739562988281e-03
-1.427221298217773438e-02
-1.383709907531738281e-02
2.998161315917968750e-02
-2.292227745056152344e-02
-3.679013252258300781e-02
1.566207408905029297e-02
9.948879480361938477e-03
-4.521584510803222656e-02
1.759958267211914062e-02
-6.773114204406738281e-03
4.248738288879394531e-03
9.854555130004882812e-03
5.680084228515625000e-03
7.438540458679199219e-03
1.438999176025390625e-02
-1.302729547023773193e-02
1.599836349487304688e-02
-2.945661544799804688e-04
1.721978187561035156e-04
1.234638690948486328e-02
-3.765916824340820312e-02
1.285784691572189331e-02
-4.946142435073852539e-04
-5.074381828308105469e-03
-9.284973144531250000e-03
6.135940551757812500e-03
-4.214745759963989258e-02
6.101377308368682861e-03
-7.258594036102294922e-03
6.644487380981445312e-03
3.913998603820800781e-03
1.438558101654052734e-03
-5.428695678710937500e-02
-4.228949546813964844e-03
1.249682903289794922e-02
-3.521227836608886719e-02
1.440262794494628906e-02
-5.193948745727539062e-03
-2.536267042160034180e-02
6.957292556762695312e-03
-1.167240142822265625e-01
1.898229122161865234e-02
2.662658691406250000e-02
-2.967749536037445068e-02
-1.287853717803955078e-02
3.626883029937744141e-03
-7.985532283782958984e-03
-3.185421228408813477e-04
-8.062839508056640625e-03
1.125705242156982422e-02
2.772322297096252441e-02
2.008235454559326172e-02
-1.255086064338684082e-02
-9.258747100830078125e-03
1.363635063171386719e-02
-1.861155033111572266e-03
-3.243923187255859375e-03
1.023530960083007812e-03
-7.951557636260986328e-03
1.568698883056640625e-02
-2.057337760925292969e-02
3.217220306396484375e-03
2.582502365112304688e-02
3.900527954101562500e-04
-7.285416126251220703e-03
1.039767265319824219e-02
-6.281435489654541016e-03
-1.415503025054931641e-02
4.142642021179199219e-03
1.330479979515075684e-02
2.613478899002075195e-02
2.387762069702148438e-03
6.708800792694091797e-04
-1.049041748046875000e-02
8.978605270385742188e-03
2.051562070846557617e-02
6.181091070175170898e-03
1.956533640623092651e-02
7.806539535522460938e-03
2.319645881652832031e-02
3.248137235641479492e-02
-1.034874469041824341e-02
1.561814546585083008e-02
-3.348588943481445312e-03
6.886482238769531250e-03
-3.278017044067382812e-03
1.111531257629394531e-02
-4.649162292480468750e-02
1.798629760742187500e-02
5.740118026733398438e-02
1.149636507034301758e-02
2.061581611633300781e-02
3.029286861419677734e-02
2.487751841545104980e-02
6.119728088378906250e-03
-1.025381088256835938e-01
-2.150726318359375000e-02
5.550742149353027344e-03
-1.677763462066650391e-02
-9.344935417175292969e-03
-1.921868324279785156e-02
-1.225638389587402344e-02
6.285548210144042969e-03
-1.719453930854797363e-02
-3.137975931167602539e-03
2.912998199462890625e-03
8.158892393112182617e-03
1.560568809509277344e-02
1.933690905570983887e-02
-8.830904960632324219e-03
-6.493318825960159302e-03
-8.498787879943847656e-03
-1.459109783172607422e-02
-1.454621553421020508e-03
-4.181936383247375488e-03
2.877861261367797852e-03
2.921047806739807129e-02
-9.343624114990234375e-04
4.672169685363769531e-03
1.846384257078170776e-02
1.214838027954101562e-02
8.548974990844726562e-03
2.811759710311889648e-03
2.777540683746337891e-02
-1.566151250153779984e-02
-2.424025535583496094e-02
2.901631593704223633e-02
-2.553677558898925781e-02
1.283681392669677734e-02
1.000815629959106445e-02
6.162345409393310547e-03
7.025003433227539062e-04
3.746134042739868164e-02
8.737564086914062500e-03
7.806301116943359375e-03
-7.631480693817138672e-03
1.795887947082519531e-02
5.597376823425292969e-02
5.898475646972656250e-03
-3.720951080322265625e-02
2.157521247863769531e-02
-1.104873418807983398e-02
2.693367004394531250e-02
7.093548774719238281e-04
-8.053362369537353516e-03
-4.121243953704833984e-03
9.440541267395019531e-03
-3.389000892639160156e-03
-1.046466827392578125e-02
7.163584232330322266e-03
-1.319810748100280762e-02
2.904132008552551270e-03
4.382878541946411133e-03
-4.695594310760498047e-03
-2.412319183349609375e-03
-1.837829221040010452e-02
-2.059888839721679688e-02
7.682323455810546875e-03
1.659551262855529785e-02
-2.648126333951950073e-02
2.112150192260742188e-03
2.730697393417358398e-02
4.263371229171752930e-03
-1.360493153333663940e-02
-2.106428146362304688e-03
1.693606376647949219e-02
4.098284244537353516e-02
3.308739513158798218e-02
-5.442231893539428711e-03
4.831790924072265625e-03
-1.049232482910156250e-02
-4.596233367919921875e-03
2.968966960906982422e-03
-5.447089672088623047e-03
-9.577333927154541016e-03
2.326011657714843750e-03
1.511907577514648438e-02
1.353752613067626953e-02
1.534509658813476562e-02
5.472123622894287109e-03
-2.261877059936523438e-02
1.457452774047851562e-03
-1.128041744232177734e-02
2.405166625976562500e-03
-1.710879802703857422e-02
-1.243174076080322266e-02
2.331978082656860352e-02
1.226279139518737793e-02
3.476619720458984375e-03
-1.123237609863281250e-02
2.241516113281250000e-02
-2.891290187835693359e-02
7.497638463973999023e-03
2.247654646635055542e-02
2.545654773712158203e-03
-1.464956998825073242e-02
-9.019196033477783203e-03
1.183712482452392578e-02
-1.633596420288085938e-02
3.715515136718750000e-03
1.221764087677001953e-02
-5.577087402343750000e-03
5.133330821990966797e-03
7.060229778289794922e-03
-2.365761995315551758e-02
-1.187893748283386230e-02
3.502368927001953125e-03
-2.296817302703857422e-02
-1.383781433105468750e-03
-5.816519260406494141e-03
-2.599668502807617188e-02
-6.902456283569335938e-03
-4.337668418884277344e-03
1.919353008270263672e-02
-1.517677307128906250e-02
4.559516906738281250e-03
1.008987426757812500e-03
-1.152098178863525391e-03
-3.446787595748901367e-02
9.595870971679687500e-03
2.670598030090332031e-02
2.411115169525146484e-02
-2.923011779785156250e-04
2.324223518371582031e-02
1.147687435150146484e-03
-2.405107021331787109e-03
-1.889675855636596680e-03
-6.677269935607910156e-03
-2.947337925434112549e-02
2.834707498550415039e-02
1.949501037597656250e-02
-1.036882400512695312e-02
1.685285568237304688e-02
-3.501415252685546875e-03
-1.721632480621337891e-02
7.723474502563476562e-02
2.036213874816894531e-03
1.051151752471923828e-02
-7.989108562469482422e-04
1.976022124290466309e-02
1.770216226577758789e-02
-1.035129278898239136e-02
-6.242156028747558594e-03
-1.305925846099853516e-02
-1.220083236694335938e-02
1.811420917510986328e-02
-3.250026702880859375e-02
2.011723071336746216e-02
-2.144336700439453125e-03
-2.859723567962646484e-02
9.390026330947875977e-03
-4.817247390747070312e-03
3.122668713331222534e-03
-1.314024627208709717e-02
-2.204239368438720703e-03
2.296304702758789062e-02
-3.022217750549316406e-02
-6.821155548095703125e-04
3.531455993652343750e-03
4.773259162902832031e-02
7.757097482681274414e-03
-1.200753450393676758e-02
-7.786124944686889648e-03
-1.091116666793823242e-02
-4.928663372993469238e-03
-5.476295948028564453e-03
3.154784440994262695e-03
-1.060068607330322266e-02
-3.645211458206176758e-03
-1.474881172180175781e-02
-3.856182098388671875e-03
2.358871698379516602e-02
3.133555874228477478e-03
-6.071686744689941406e-03
4.615187644958496094e-03
-4.558205604553222656e-03
-3.065171837806701660e-02
9.257808327674865723e-03
4.768073558807373047e-02
-3.381490707397460938e-03
1.577019691467285156e-03
-5.776882171630859375e-03
-6.764382123947143555e-03
-1.965463161468505859e-03
4.503893852233886719e-02
-1.180638372898101807e-02
-1.992416381835937500e-02
-3.510713577270507812e-04
-1.351416110992431641e-02
1.613020896911621094e-03
-4.859447479248046875e-03
5.237460136413574219e-04
6.992340087890625000e-03
-3.698825836181640625e-03
-2.387046813964843750e-03
4.997557029128074646e-03
-2.336353063583374023e-03
-1.074314117431640625e-03
-1.549363136291503906e-02
1.623857021331787109e-02
2.711343765258789062e-02
1.253604888916015625e-03
-1.731872558593750000e-03
8.411765098571777344e-03
2.211093902587890625e-03
2.387911081314086914e-03
2.416729927062988281e-02
-9.424448013305664062e-03
1.393789052963256836e-02
1.735877990722656250e-02
3.381848335266113281e-02
9.941637516021728516e-03
3.745555877685546875e-03
-1.752114295959472656e-02
-4.036235809326171875e-02
-1.021218299865722656e-02
-9.966611862182617188e-03
-3.651702404022216797e-02
8.281946182250976562e-03
-9.787678718566894531e-03
4.601001739501953125e-03
-5.477666854858398438e-03
1.387906074523925781e-02
9.657621383666992188e-03
-1.174813508987426758e-02
-3.354191780090332031e-02
1.430690288543701172e-02
1.933574676513671875e-04
-6.492994725704193115e-03
-1.081180572509765625e-02
-2.025410532951354980e-02
1.493561267852783203e-02
1.744568347930908203e-03
-1.189887523651123047e-03
8.198022842407226562e-03
-2.546107769012451172e-02
2.112269401550292969e-03
3.127336502075195312e-03
2.074050903320312500e-02
-5.134463310241699219e-02
-1.083765923976898193e-02
1.633883267641067505e-02
-2.136969566345214844e-02
2.156496047973632812e-04
5.839085578918457031e-02
6.901219487190246582e-03
-2.159386873245239258e-02
-3.875318169593811035e-02
-2.999377250671386719e-02
-1.785464584827423096e-03
1.630371809005737305e-02
7.459453772753477097e-03
-1.132917404174804688e-02
1.568198204040527344e-03
6.180047988891601562e-03
2.505987882614135742e-03
5.981862545013427734e-03
-3.716826438903808594e-03
-1.097226142883300781e-02
-1.860582828521728516e-02
-4.668104648590087891e-02
-1.332780718803405762e-02
8.526235818862915039e-03
1.468217372894287109e-02
1.454108953475952148e-02
1.618587970733642578e-02
-2.117633819580078125e-03
1.942723989486694336e-03
3.018665313720703125e-02
-4.052925109863281250e-02
7.100820541381835938e-03
-1.529335975646972656e-03
1.222324371337890625e-02
-9.059071540832519531e-03
3.109312057495117188e-02
-8.673667907714843750e-04
-2.830922603607177734e-02
-3.831386566162109375e-04
-6.175708770751953125e-02
3.739500045776367188e-02
-6.062030792236328125e-03
2.787423133850097656e-02
-1.889932155609130859e-02
-3.080415725708007812e-02
3.364086151123046875e-04
2.836701273918151855e-02
-2.572989463806152344e-02
1.944801211357116699e-02
-6.004706025123596191e-03
9.886145591735839844e-03
-1.237565279006958008e-02
1.216650009155273438e-02
1.081943511962890625e-02
1.268577575683593750e-02
3.593742847442626953e-03
7.110834121704101562e-05
-2.822607755661010742e-03
1.261055469512939453e-02
-1.377582550048828125e-03
-1.016485691070556641e-02
-1.051568984985351562e-02
-7.418330758810043335e-03
2.927470207214355469e-02
-2.701044082641601562e-03
8.776867389678955078e-02
1.917052268981933594e-02
1.987504959106445312e-02
-1.273274421691894531e-02
-1.126021146774291992e-03
1.335060596466064453e-02
2.810895442962646484e-02
-8.052825927734375000e-03
9.983062744140625000e-03
2.898550033569335938e-02
4.843354225158691406e-03
-2.237856388092041016e-03
1.823806762695312500e-02
